
\data\
ngram 1=8
ngram 2=12
ngram 3=18

\1-grams:
-1.104146	</s>
-99	<s>
-99	<unk>
-1.646706	a	-0.4432895
-6.555377	the	-0.1406598
-5.203838	to	-0.127972
-5.344079	i	-0.3424536
-7.731468	on	-0.1150227

\2-grams:
-1.646706	a dog	-0.4432895
-6.555377	the dog	-0.1406598
-5.203838	to school	-0.127972
-5.344079	i am	-0.3424536
-7.731468	on board	-0.1150227
-1.646706	a cat	-0.4432895
-6.555377	the cat	-0.1406598
-5.203838	to work	-0.127972
-5.344079	i hurt	-0.3424536
-7.731468	on deck	-0.1150227
-5.344079	i love	-0.3424536
-7.731468	come on	-0.1150227

\3-grams:
-1.646706	love a cat	-0.4432895
-6.555377	the cat wept	-0.1406598
-5.203838	to drink rum	-0.127972
-5.344079	i love you	-0.3424536
-7.731468	on the road	-0.1150227
-1.646706	a merry christmas	-0.4432895
-6.555377	the black hat	-0.1406598
-5.203838	to kill mockingbird	-0.127972
-5.344079	i am sam	-0.3424536
-7.731468	on three floors	-0.1150227
-1.646706	a damn shame	-0.4432895
-6.555377	the door broke	-0.1406598
-5.203838	how to contribute	-0.127972
-5.344079	i hurt more	-0.3424536
-7.731468	on second thought	-0.1150227
-5.203838	to my room	-0.127972
-5.344079	i died yesterday	-0.3424536
-7.731468	on a whim	-0.1150227